40
-2
17
11
18
-14
9
2
-36
-19
-15
5
0
14
-7
-40
18
33
-30
0
20
13
8
37
18
37
-11
-34
8
6
-30
-31
16
20
-28
-23
-23
-47
-34
-5
10
36
6
16
9
44
-37
-10
-25
-18
13
13
33
14
24
23
2
43
16
-12
17
-26
-41
-10
-12
14
13
-27
27
-3
34
4
-10
-5
19
36
46
-30
18
-17
16
-6
38
5
9
-31
-24
21
6
-35
-25
35
-31
44
-13
-22
19
-13
16
16
8
-7
3
-12
48
-23
-43
-27
-7
-40
-42
-13
-3
36
-29
13
-21
18
-3
-22
28
-28
28
2
36
-44
-1
-2
-42
-22
-6
2
-12
-9
5
-9
10
-37
-36
-24
4
39
-18
-9
-25
-9
-18
-46
15
34
13
-43
-1
29
30
-25
28
-16
21
6
-38
10
6
18
14
20
-31
33
48
36
-4
-17
30
-42
18
9
5
43
52
-11
-5
-2
-5
13
3
-32
-8
57
-25
39
-21
7
-33
12
-34
21
20
36
-39
30
23
-1
0
25
7
-30
-28
-10
15
-18
-35
-19
1
27
-25
-37
-48
-8
30
-39
1
-12
2
18
-59
-37
-27
16
-30
-14
-18
0
14
23
8
5
-11
13
-7
-64
30
4
1
32
-44
12
35
-35
-24
-37
-28
9
38
-37
28
29
23
-31
1
-6
-35
21
-21
31
-1
37
-19
-5
32
-2
6
22
-31
-4
52
27
-39
51
-35
9
20
-19
24
9
31
47
-14
-34
9
-13
-42
10
16
-26
-6
-43
-1
-42
28
-29
36
-10
38
7
-11
4
-15
-7
-4
-63
-38
42
-13
19
6
38
-23
-10
17
1
-28
-18
-8
-22
6
66
-42
-18
8
5
45
42
7
-9
15
-3
7
3
-26
-19
-6
-35
-24
-21
37
33
5
-1
-30
-26
21
10
-48
4
-17
6
-1
57
5
9
-16
47
30
12
38
-12
23
-13
23
54
-7
31
-31
10
10
-30
-23
4
42
20
-17
31
51
6
15
27
-26
22
32
-1
-34
16
8
28
-4
-20
-32
11
11
-29
13
-26
39
-47
26
-60
28
32
-5
8
-30
-83
-40
-18
-21
32
-42
-48
-32
14
29
45
30
-13
40
24
-24
25
-19
16
37
-2
-7
-23
-1
-13
-4
15
7
-25
13
-47
-44
-11
-33
25
33
-26
-8
-31
-13
9
-19
-3
-4
1
11
-39
-9
-17
-7
7
-31
-21
17
56
-28
19
-58
80
38
28
43
25
-8
-40
28
-7
18
-2
-16
-9
-39
13
21
-11
17
18
11
-16
-10
-14
-18
7
26
-34
51
-28
29
-32
-18
-39
-6
1
30
19
21
-12
-8
15
-11
-7
-6
-20
-46
12
32
64
-20
-38
37
-13
-54
-37
-3
-24
-4
-44
-6
18
-46
-11
19
-30
-3
19
-43
-26
17
-36
9
-38
-27
-28
30
-43
-27
-32
11
-15
32
3
37
-50
-56
-64
-9
-21
-23
32
33
21
24
-48
-40
77
-21
26
22
13
28
-1
30
-6
-28
-49
41
35
-3
-20
-30
-43
40
-39
-35
11
-18
43
19
23
6
-5
19
0
-11
-8
3
-22
-6
25
-22
51
-2
-14
18
8
11
32
-24
-1
-19
17
-22
34
1
35
-1
0
24
45
12
-39
-27
32
-41
-10
38
26
4
4
-30
12
11
24
-45
-17
-7
5
-37
33
-36
-53
-42
-18
40
-56
-30
-13
24
25
-12
98
-9
-35
-22
-8
17
36
17
2
22
-34
-31
37
-44
18
19
-26
15
24
-9
28
6
-34
-4
24
24
-16
4
-36
-17
-42
-43
-17
-6
38
22
40
40
-10
-10
6
-38
27
15
-45
-46
50
-50
-14
28
-7
-1
33
-53
-36
-2
23
-25
9
8
-5
1
-5
24
36
-34
-6
35
-22
-14
41
31
-34
-35
-44
16
9
-34
-9
-13
-18
-31
-21
-6
8
-19
-29
20
9
6
17
-6
-1
-21
17
-31
-11
58
38
22
-9
27
58
-33
-6
17
57
9
24
50
21
3
-29
-39
22
-2
-44
5
-24
14
-24
22
-26
27
25
12
25
26
-1
-35
-32
-9
0
-20
-49
21
30
-48
-17
37
33
1
11
-26
-25
-11
22
-42
-6
7
-28
-12
0
23
49
-19
-26
-15
-10
55
-28
33
17
26
47
-44
22
11
0
-48
3
-34
32
-10
-18
-34
2
-42
-29
22
-15
-43
-15
-38
33
44
-29
-45
26
-33
-24
-45
-6
-29
-2
16
-8
25
21
-16
-34
6
-15
36
49
45
14
1
23
39
16
-28
-26
