58
-33
40
-58
17
-51
-21
-63
35
-50
29
26
-22
24
-19
-12
20
-44
-5
36
-11
15
31
-48
-51
-4
8
-14
-21
41
-5
-11
4
5
54
-4
27
22
-50
51
-45
-5
-28
42
-49
61
2
-50
-25
36
-13
61
17
21
-59
-21
-12
-43
-42
16
-30
17
-52
-2
32
19
-35
10
46
9
-32
-56
20
21
-8
21
-43
-58
-38
-59
-8
37
-55
-62
11
10
4
43
-31
55
40
-52
-28
26
-48
6
26
-17
-39
-38
7
-17
-27
29
-20
-35
30
-22
-35
-22
19
37
-30
-63
-41
22
7
13
-22
-14
18
-28
-20
26
-57
-42
-30
19
-6
21
-58
58
-18
4
-61
-13
-12
-23
11
-40
23
-35
13
62
-46
-17
-20
35
23
47
-22
-44
47
39
-18
-11
-47
-25
33
-25
-18
24
44
-7
-25
20
4
-47
-3
21
-56
29
11
-30
25
24
-14
44
-38
-20
-43
6
9
48
-8
-18
-9
-19
42
-18
-56
-4
10
-7
29
4
-3
-56
-57
-39
44
51
3
-11
21
-53
38
21
-29
-8
-46
14
-28
-20
-45
-8
-30
52
-59
-33
-38
19
47
-34
46
-37
49
8
11
39
47
-19
-34
-13
-4
-17
-25
30
-25
-53
-8
2
-45
-5
32
-11
-15
-16
39
-49
21
51
31
18
35
-40
16
33
-41
4
-22
32
36
3
21
51
28
0
19
30
12
-3
-50
-31
1
-55
-38
36
57
17
-56
17
-65
-52
-19
11
25
-47
51
-26
55
-6
24
23
17
-55
-40
-50
13
-22
-15
1
8
-36
12
-16
-33
28
18
35
49
29
-40
27
37
-15
-48
-29
-34
6
-5
22
-41
57
40
55
6
-16
68
-36
26
61
24
37
-30
-31
54
4
1
62
35
63
72
1
-13
-51
37
58
-13
4
43
21
46
19
-32
55
-16
42
13
28
0
-13
-29
-7
-31
-44
-54
-5
39
53
-26
-50
13
-4
-52
16
4
61
41
-27
-45
46
29
30
34
-27
-54
-3
21
-9
-20
51
44
-48
-2
3
8
-12
-43
35
-7
-61
20
-1
12
58
-36
18
28
30
-61
46
-60
20
5
17
-21
26
-23
-50
48
41
57
-30
20
24
-53
34
20
-42
49
-63
1
-23
61
18
19
-51
-21
3
24
4
-15
2
28
48
1
-5
-22
-11
12
-50
5
27
-54
49
-44
13
-39
31
41
41
-47
49
6
-27
-8
6
-58
-8
64
-62
-57
20
-7
22
-60
24
-1
-47
45
-51
-36
31
19
-20
-55
5
-27
32
28
-55
-29
-59
-32
22
59
1
-8
-1
-54
-29
-21
-20
2
52
-56
49
11
4
12
-60
-30
41
8
58
-16
44
-59
-52
-54
-15
-58
15
0
-29
9
50
-56
-33
-6
-42
7
44
16
-41
-43
-29
-11
37
42
-92
13
-58
7
-8
27
-55
-18
-13
12
-11
-65
-53
15
34
-10
27
-38
-24
-11
9
-7
-48
46
-28
-37
19
-56
15
21
5
4
-42
30
-8
-25
-33
6
-6
-61
3
16
54
-12
30
-46
-14
-2
-9
-18
-29
21
-13
-56
62
60
-37
3
-7
-18
-27
34
37
-57
32
37
47
-15
-30
-10
26
-4
63
3
51
31
-1
-7
59
3
63
-7
22
7
-45
-14
14
35
19
53
-61
-23
44
-6
-43
2
-12
-33
25
-58
54
-57
-17
61
-11
-37
12
25
-3
53
-22
-6
-23
-20
21
-41
28
-15
-19
11
35
47
-48
35
5
5
-50
35
-14
-25
15
-8
3
28
59
38
39
-23
33
14
4
50
-13
-35
-37
-34
-46
-60
42
-17
-46
-33
-17
-62
26
-1
-27
-15
-56
-15
-35
1
8
33
-51
-45
50
23
-23
44
-56
15
38
-40
37
-23
54
7
7
8
37
-47
45
37
35
35
45
11
48
54
-17
41
-59
-36
-39
-58
31
44
22
1
16
-59
57
-38
14
-46
56
20
64
-35
15
28
26
10
3
-26
9
9
-35
41
11
-57
-54
38
0
-55
-36
-3
49
39
61
23
7
23
-15
46
-35
-3
-57
42
-32
-5
-43
-9
9
32
28
1
46
34
-26
54
21
37
40
-53
-12
-14
-42
38
-12
-16
22
22
-12
34
-16
-32
10
-41
50
-31
22
-10
-62
-34
16
-3
-17
40
16
30
55
28
-35
19
50
-16
42
-20
56
36
-13
-41
57
31
-24
18
45
