23
12
-3
14
30
17
30
32
-24
16
-22
24
-7
-14
-2
-40
-26
1
33
-15
2
-4
42
29
-38
-3
39
-37
44
0
27
-5
-34
-27
40
41
-28
-4
36
9
6
-19
17
26
2
34
-38
-42
18
-20
-21
-34
45
-7
5
6
7
19
39
20
41
23
14
-29
-11
6
-15
31
-15
5
-33
14
-44
33
-37
38
11
7
-42
28
16
-10
-26
38
-31
48
-24
-23
-50
4
-11
19
-6
-11
1
64
18
17
-32
23
-30
10
-7
-56
-18
-7
12
9
31
26
-20
-40
-27
-20
-33
42
-35
16
42
53
24
-19
7
-8
12
-32
-21
-38
44
19
41
-36
-36
-16
-21
14
-3
30
-11
-27
-1
37
-6
25
41
-3
-33
-27
-17
4
21
9
-9
-39
-3
-12
-16
23
-4
-24
-45
-36
-52
0
-5
23
2
-15
-9
-45
25
-37
-27
-28
-4
18
-3
44
-38
-33
29
-45
-16
19
-34
21
-4
-26
-8
51
1
-3
4
-24
-57
12
0
4
13
-6
-43
30
-7
24
-23
50
-42
32
-25
37
-43
19
-48
-25
14
-30
-37
-25
-2
-19
-1
-46
-27
-24
43
30
-14
27
-25
-33
35
-32
-18
34
-16
-17
30
-61
-21
-4
18
30
-34
-24
38
9
35
26
14
-12
-19
-7
18
2
36
-27
19
-43
-14
28
16
-2
-11
23
24
36
16
-38
0
32
36
17
-3
-21
-20
-13
28
-22
-39
36
13
4
-28
33
13
-28
-6
-37
31
1
25
-19
24
29
38
22
-23
-33
-33
-19
35
6
-3
13
22
-13
-17
-28
-16
18
-17
12
13
35
35
-27
-1
-2
-13
-10
13
30
32
-20
-19
-41
-38
27
21
22
15
-39
10
-16
1
21
25
-22
-20
22
-25
-35
21
-33
25
-22
-26
-12
0
36
10
3
43
40
-22
34
-26
0
-15
-18
-3
-37
36
-6
14
36
21
41
30
42
-1
-43
36
37
-17
8
11
8
-6
-38
-17
-17
26
-35
-39
-36
-31
-30
21
-42
-32
-43
12
2
41
-13
46
33
12
30
-9
3
16
-14
-13
0
0
-10
-2
9
1
-41
9
23
5
-42
-2
-5
-12
36
-33
9
-3
-18
-36
21
13
9
-35
6
-8
39
-33
-28
16
-31
48
28
-10
22
23
-19
40
37
-30
40
-5
-31
-2
17
30
-18
-8
-12
-35
-45
35
-15
-35
15
-4
39
-14
29
9
29
41
4
-35
0
31
-29
-26
8
-64
4
-13
6
14
-31
-40
-42
-46
-14
-30
-1
12
-5
2
-29
-12
2
-43
-36
-6
-22
26
-32
-36
38
7
24
-14
-6
-3
2
42
-5
-1
-17
4
-21
-2
-18
7
-10
31
-10
13
31
2
-28
36
38
12
-5
-5
-34
-18
42
-43
10
33
-5
31
20
-29
36
-1
2
28
13
7
-31
28
39
-34
-41
-31
-1
-39
-31
21
40
-45
40
8
40
-20
7
-40
-9
-35
-4
44
-31
1
17
33
-21
-10
15
-10
20
-39
-35
-30
-26
-12
17
5
-4
21
-30
-46
-23
-22
26
-13
17
-17
-7
22
0
29
-41
4
5
-9
-18
36
-8
0
1
-7
31
41
-34
16
9
-38
10
-15
33
34
27
-34
-20
-27
9
23
4
36
7
36
11
4
-9
-3
28
-3
28
41
-17
-41
39
-26
28
-11
47
25
-24
-29
17
11
37
18
25
23
24
34
38
15
-22
-28
6
28
35
37
17
40
34
12
32
3
17
23
40
0
-10
7
-43
-41
30
-6
32
4
31
-27
3
22
29
22
-7
-1
34
26
-43
6
-31
12
10
-34
-21
-5
-24
-38
-23
31
30
-6
-34
31
27
11
19
27
1
-8
40
-22
11
35
25
-37
-20
-15
-5
33
-32
-10
28
15
25
31
-15
-37
-7
23
-11
-25
-37
-34
-27
-41
-17
-7
-42
14
14
7
-3
27
11
-17
-36
-37
3
15
-24
39
32
-31
35
30
-28
41
-21
-18
25
8
-24
9
18
10
16
13
13
0
-2
-30
-27
-34
25
-13
-26
23
-32
22
-35
-22
33
39
38
1
10
34
21
-45
-25
26
31
31
-39
-43
-22
32
33
28
23
-43
13
-14
22
12
8
-12
5
-37
13
-31
-36
-19
-47
2
-39
-15
9
23
-32
39
4
-30
-3
38
-26
7
6
-42
-19
-20
39
4
18
3
24
-8
-30
4
-27
6
-1
-48
22
-7
40
-8
-22
-15
33
5
50
26
42
-46
-11
3
0
-2
-8
38
-18
-16
8
2
37
36
-8
-18
-17
28
12
19
33
-35
-34
-33
27
-42
0
-35
13
-11
15
3
5
-1
-31
20
-3
3
-37
-8
28
8
-36
-35
-20
5
7
24
-25
33
-26
-12
-24
7
-22
20
-3
8
22
7
12
6
34
28
6
-35
28
25
45
-26
10
10
35
-35
0
4
-31
-23
-39
21
5
-42
14
-17
18
-40
50
32
-31
-10
9
53
-40
-21
3
-22
-19
10
-20
-25
-11
28
9
-1
17
-34
14
-25
-26
18
-20
-13
-47
-18
-17
15
38
-10
30
-1
-2
14
-41
-9
-17
13
-9
7
-18
35
-11
27
8
-26
32
11
8
10
15
-35
5
-53
-11
-7
7
32
9
-34
-7
-15
14
2
21
7
-20
-12
-44
-31
-8
-2
40
-6
15
5
24
-11
-18
13
8
36
-31
-13
-25
17
24
-9
-26
28
-10
20
-18
-39
-41
28
-34
0
13
28
27
-15
-42
-8
20
-20
14
42
-4
-33
3
-22
-5
-5
-27
4
26
-45
-22
-40
8
-5
-48
28
17
-17
19
39
18
3
-46
-38
-4
26
-6
-42
-40
18
6
-3
-39
-5
-34
16
-32
20
2
5
8
-12
-25
-39
-19
-33
-15
-41
-7
38
23
0
-36
8
39
18
-44
-40
17
-8
-27
-11
37
-18
32
35
28
-12
-29
-11
-3
-24
41
-39
14
-1
7
2
-6
-14
-24
-14
-20
10
41
13
-3
-3
-38
-41
5
34
29
-29
-26
28
4
-26
-18
-32
-2
38
-36
23
-35
-33
3
-35
5
30
10
-31
9
-35
38
25
44
4
-24
-11
-10
-42
22
6
28
9
22
-27
-49
24
-40
31
28
-9
-31
-9
18
-11
-21
-5
32
-12
36
37
11
-25
15
4
-30
32
30
38
20
42
25
-6
9
-17
40
11
9
-2
26
-17
18
14
-52
-12
-30
9
-14
42
-4
25
0
-28
28
-37
-4
10
15
70
12
-10
20
-21
0
-36
41
-45
-15
-17
24
-34
-27
-35
18
14
-12
29
-36
-38
8
17
15
13
37
41
-14
-17
-8
-10
-1
0
0
11
-36
1
16
1
-1
-9
44
13
-29
-10
2
-18
-14
-7
-23
46
23
2
21
-11
-33
8
43
-9
0
-43
-22
16
-12
15
-11
7
28
27
-7
17
-34
36
-44
31
-49
39
12
11
-20
13
-28
7
16
-1
22
-19
25
28
-38
4
29
28
-25
-15
13
28
-4
9
-16
19
-20
-6
-40
31
-14
-6
6
-18
-1
-34
1
-4
25
8
-23
-7
10
30
-34
34
-19
-10
22
22
-16
29
1
-4
-20
17
-37
2
-38
43
37
-24
-17
-39
13
31
-32
-34
-18
9
-2
35
17
-3
35
-14
36
-7
-35
-2
18
29
-15
-11
-28
29
-43
38
13
42
40
32
7
34
-11
16
-38
39
-34
34
-43
-32
26
13
3
6
2
-24
-40
20
9
6
10
-26
24
-1
0
5
13
-37
31
-1
30
-19
18
-25
-21
-9
-18
-38
34
-42
28
-6
-8
-25
31
10
-27
47
-40
-34
36
-2
-19
14
-30
-10
-14
-24
-12
-33
-2
5
12
-44
-24
37
-21
-4
30
-22
15
7
29
5
-7
23
-37
11
-10
8
39
-40
-16
-40
35
-31
3
-44
21
-9
23
0
-14
-18
3
23
16
-28
-32
11
24
28
-15
-25
-16
9
-22
31
28
34
-11
-25
15
38
-25
30
-4
-4
1
25
14
-44
-6
-24
28
-7
9
-14
-38
-21
-27
18
-33
-42
31
-35
-6
20
8
-29
-28
-34
-9
-41
7
39
-9
27
19
-17
-6
4
39
35
32
-19
-20
42
3
-30
-34
32
0
-20
-16
-35
-27
34
-32
17
26
-39
-16
-9
43
32
-38
-3
29
10
-31
22
32
-8
-27
-41
-8
5
34
-8
-7
2
-29
-43
40
-7
-5
37
39
-8
17
-35
-16
8
28
46
22
40
-2
-29
-19
40
-30
42
-12
-2
36
5
37
3
-22
26
41
-23
-17
-12
-21
-36
-32
30
-38
-12
30
40
-32
-16
27
38
-26
-24
12
21
1
-37
27
39
24
15
12
-41
2
-24
33
3
-12
1
-31
15
10
-10
29
-11
35
22
10
-29
40
-23
-25
29
-19
2
23
0
-8
-16
31
19
38
15
19
-44
3
-7
28
1
-23
-33
28
-18
-4
7
-25
-30
43
6
36
37
25
16
-29
-39
-40
-34
-46
-11
0
37
16
-31
29
12
-32
8
-44
-6
29
17
-19
-44
35
25
6
45
6
-22
7
-37
41
10
23
-31
-31
26
-16
13
-36
36
-40
-18
41
22
40
-18
-18
20
-33
-13
-48
13
-29
-25
-57
-18
-36
-40
-23
-39
-35
-14
3
29
2
17
15
-8
-5
44
-11
-33
41
-20
-30
-27
38
2
-24
9
-4
-30
17
-18
40
21
-13
36
11
26
-10
-8
-15
34
11
23
-17
-5
8
-12
-14
33
-14
39
8
22
25
-2
2
-32
-12
32
33
35
-19
16
22
12
42
18
-6
-15
3
36
-16
-3
-32
-19
-15
-28
-19
-3
-37
-2
-25
-16
-1
-4
-50
17
38
4
29
16
42
-7
-45
33
-11
-13
9
31
-1
24
32
26
3
6
-43
32
2
32
2
18
24
-15
-12
-8
19
-24
-31
29
24
-41
27
-34
12
-13
-24
0
28
-7
9
-36
1
-14
36
0
-7
3
-6
-45
-16
-6
27
-35
14
-15
-14
3
-23
-21
-9
-32
3
17
4
35
-38
22
-11
-24
22
-25
28
-22
-4
4
-15
-27
-40
22
-12
-24
29
-9
-12
-39
39
-46
-5
24
-11
37
-16
5
33
-37
35
-30
0
-23
-17
-16
40
41
37
-3
0
24
-42
-43
-15
35
-30
-7
7
-12
-4
16
-8
-41
-32
-28
-38
13
-9
26
27
2
36
24
-5
-19
-30
32
31
-38
-14
-9
-39
-18
-7
-12
16
-1
8
-19
-1
41
-45
17
-5
30
-42
40
-5
-29
-16
25
-22
-44
-46
36
22
22
-12
-32
35
21
-6
17
-39
-34
18
-21
-37
28
23
-6
5
-19
-15
23
0
20
33
10
-38
-23
17
0
-16
-10
18
36
-33
17
37
-23
34
-46
16
-35
-14
-8
-39
-23
-12
29
-28
-40
19
24
21
30
31
37
-46
20
-32
-10
-33
-43
-17
40
39
-29
2
-27
-25
14
-13
14
-15
8
26
22
-8
43
-6
-14
-19
-44
39
-20
-42
-17
-27
10
-8
-13
-26
-31
4
7
-42
-21
7
37
11
-26
5
22
-21
34
44
-28
21
-32
27
-41
-12
45
-19
-19
-22
-18
-31
-15
-27
-26
-4
-5
-40
27
-30
4
36
2
-4
40
-1
27
-34
17
32
21
9
-8
-30
-37
42
-3
-36
35
21
-33
-39
36
-43
-6
18
-20
-7
6
-8
24
-38
-26
2
-15
0
-44
-25
-13
-11
-13
31
-12
7
-10
-34
14
-48
-22
-2
-30
9
-20
-8
-3
-35
-21
-27
25
-33
8
3
38
-8
-10
35
-15
-37
0
6
46
-32
-2
19
-39
-42
-40
-30
30
-4
9
37
30
-2
1
-44
-7
3
31
-48
4
8
-29
-12
3
-7
-22
-32
-2
-22
-42
31
5
-1
-27
0
-38
4
-48
-15
-44
14
-2
-31
4
-42
29
-29
3
30
-31
-11
22
9
-17
-13
13
16
24
11
1
-19
19
-22
14
-36
24
-54
-22
-24
-2
3
-23
16
-33
6
-18
-29
-22
-23
43
34
40
18
-32
-35
33
42
-32
2
-19
-2
16
34
30
-1
40
-20
21
-13
2
18
6
-10
-6
-26
20
0
30
-24
4
12
30
-12
27
-33
35
-30
-41
-43
34
-35
25
4
28
-2
-38
-34
30
1
-18
-30
-14
-11
4
-20
-31
42
-22
16
-22
-37
10
-34
3
-8
25
36
22
5
-41
27
-37
30
12
28
-35
-35
-37
13
-34
-19
-1
3
35
-38
-20
1
-10
13
-41
48
6
-18
-22
-38
-27
-4
34
21
6
25
-8
-9
-26
17
24
30
-14
36
34
40
9
7
47
35
-41
21
26
9
27
9
27
21
17
-6
22
9
-42
24
-8
-13
-22
-37
-26
-38
45
-52
-37
-11
-9
-8
19
4
-37
-18
32
-15
-46
-29
5
21
-28
-31
-8
-8
3
-16
-34
-9
41
-9
30
-9
33
17
-48
35
32
-35
27
-7
38
-26
11
-33
27
-19
-33
-20
-15
-12
1
-25
4
-10
-8
-24
-4
-30
-17
18
-8
-24
-31
-2
20
36
3
30
-19
-16
-30
-16
38
-23
-43
-2
32
-24
-39
19
-15
-15
-7
1
23
25
45
12
-47
28
17
4
-21
-10
13
26
-22
-30
-31
16
29
-21
31
-40
25
12
21
-8
11
15
15
31
27
12
26
-8
19
-1
-19
12
-18
23
25
-12
21
-9
11
-43
26
-13
-18
40
-35
10
25
-40
-2
-41
-3
15
-40
-3
29
36
-5
22
10
19
10
36
5
0
-13
15
20
-32
-26
25
32
-39
25
21
-46
-13
-20
-32
20
-7
32
8
10
31
13
24
-18
14
28
-14
-35
41
-8
-9
-19
-33
7
67
-30
-16
30
4
39
-31
39
31
20
-33
-12
-36
-4
6
30
-28
-33
-38
25
-39
-34
32
9
-25
-35
-32
-13
-36
24
24
11
-18
-18
-9
18
-12
11
9
13
-31
-19
3
37
31
10
41
-1
-12
26
13
25
-15
-30
-22
-2
-15
33
-36
21
-33
36
-3
27
37
25
-35
3
2
28
-13
-20
-37
37
7
28
-15
-40
16
-2
-38
35
-43
13
16
0
0
33
-5
39
-40
-10
-28
10
11
-17
33
34
31
-10
-9
-10
-28
6
15
2
34
-7
38
-46
34
-9
-1
-12
-27
-24
-27
-28
34
3
37
20
-25
1
-31
13
31
42
-3
-16
-11
8
-17
18
13
-8
16
19
24
21
21
-31
16
34
7
-44
-14
-24
6
-37
-18
-6
-31
17
30
6
5
-31
-41
43
42
-16
35
38
-7
-4
2
14
57
-20
-23
12
-26
19
29
-36
-42
38
31
12
4
5
33
2
34
1
26
-13
37
-11
29
-29
-17
7
25
1
35
-38
-32
-37
-28
-17
17
32
-20
7
-17
0
-28
-29
26
-22
-10
-5
11
38
15
29
-25
8
34
27
14
-13
-45
-26
-36
21
-14
-21
1
-30
-26
39
-44
9
13
27
-31
9
25
-22
17
3
40
4
-13
-42
-30
11
20
-41
-18
-31
27
6
6
8
31
41
-3
-40
11
-11
-39
26
7
12
22
-20
-15
32
37
3
-23
17
29
-7
40
33
-22
-5
-27
21
24
-23
17
-20
31
11
20
-45
-35
34
7
-35
5
-23
37
15
-32
-14
29
-10
-6
1
-22
-31
-29
-43
37
-36
-43
38
-22
-43
-22
-12
-35
-19
-19
19
-10
38
-16
12
-24
-17
34
4
-44
-38
-40
26
40
-23
53
-13
-6
19
41
6
-6
-40
-42
-5
5
0
32
23
30
14
27
-41
34
25
-14
18
-22
7
23
11
33
-26
-6
-26
43
-30
32
25
37
-17
0
-10
-17
-3
4
13
3
-14
18
30
-41
-37
12
6
-35
-15
-24
-24
13
23
15
43
-29
3
7
-15
37
-45
34
41
40
10
-8
42
-24
-25
31
-34
3
-22
17
-23
-19
17
11
23
16
23
30
24
44
38
-2
5
26
23
36
-3
6
-19
-2
-9
2
-19
9
24
-3
-37
18
-34
-6
-41
13
32
0
-7
1
29
26
-28
-26
-22
-10
6
-19
-29
-4
34
34
-41
33
-43
-53
-8
-11
-1
-36
40
-5
29
-11
-16
-27
-32
3
16
-18
35
-40
-6
23
-43
26
24
34
-14
24
-39
11
28
22
-30
28
-27
-29
-41
-23
-8
24
45
-23
-40
2
18
-35
23
6
-37
0
-20
-19
-28
-24
16
9
2
13
40
-42
-18
-45
28
19
-2
7
-12
17
3
-7
-33
-26
-26
32
24
-46
-36
25
-44
-31
-40
-29
-9
-2
-13
4
25
23
-34
5
5
25
-23
40
-42
13
-11
-4
11
-30
15
-27
18
-2
-5
-45
26
-36
-26
-25
-33
-18
-36
-21
-7
-19
-14
19
-20
-23
-46
5
-39
18
-8
22
15
-25
8
-25
30
-13
13
30
11
-22
16
26
-13
23
-30
-27
31
-3
6
-34
13
-9
-23
-46
26
14
-46
-2
20
17
-29
0
-3
2
29
-32
0
-20
29
-33
19
4
-24
-19
27
0
9
-36
-22
22
-31
16
-39
10
-30
11
-10
3
10
16
-28
-42
-31
11
17
24
-21
-18
14
-47
22
18
-46
18
13
-26
20
-28
-15
6
30
-7
-11
37
39
-16
-30
0
-7
14
-19
-21
-21
-36
16
-19
-7
-27
29
11
3
-5
-35
35
-36
41
-33
37
-10
47
23
22
31
-38
36
11
-25
-37
36
37
21
27
27
-12
21
19
-27
10
23
-45
-10
4
35
-17
25
-28
5
10
4
16
25
-40
4
2
-22
-10
12
-21
-21
-3
21
17
10
-9
-9
-16
38
20
-2
-33
8
18
-11
9
-8
33
1
1
4
-6
3
-40
-30
-6
20
-42
45
-12
-10
-11
5
-45
-7
-27
39
-4
19
2
-33
38
23
-45
20
3
-41
29
-28
14
2
21
-11
-20
31
12
-5
26
28
37
44
-23
32
-23
-34
-34
20
-45
26
35
5
-12
-29
-21
18
22
36
-24
28
-29
5
42
-21
12
24
-16
0
-6
16
-39
-20
-9
-45
-28
-17
-44
7
-39
-35
-19
23
-31
15
-1
29
-45
-20
-36
-23
-1
-7
13
-38
-32
-1
16
19
14
28
-45
17
-44
42
-7
13
21
-22
-19
30
-5
5
-30
-12
-17
4
-15
-32
-8
-29
-3
-35
26
44
-30
-14
-37
28
-2
-12
1
-34
9
9
-41
-17
-37
31
40
14
-41
-30
34
6
32
14
-31
31
-19
21
34
-3
-4
-27
-2
-10
-15
41
51
2
45
29
-27
-24
-28
4
46
-31
41
36
11
-35
4
-17
-22
9
2
0
-2
-5
21
9
-1
5
4
-21
-40
12
5
6
-47
1
-38
-26
-49
-12
1
38
-23
-37
-24
7
-3
-44
13
31
29
-22
4
-34
-3
-43
-2
-30
-4
-17
-38
-1
-4
4
-15
-27
42
-15
3
15
27
6
-30
-38
-32
21
-38
4
-43
25
-44
29
-13
-20
-25
-11
-29
-29
36
-38
-37
-13
-12
-7
4
10
26
-6
-33
1
-12
27
4
7
-28
-17
-5
-23
17
9
-19
29
-27
7
35
28
41
23
-27
15
-19
-33
-15
-34
-28
29
-10
1
-19
-27
1
-31
1
38
-4
31
-38
35
-48
-42
13
-33
-43
40
-44
12
19
30
-18
-47
-24
-1
15
36
6
-36
-25
-46
9
7
17
35
10
37
-23
-28
-34
23
-8
24
23
18
35
3
-34
17
16
-29
-26
5
-13
-35
-45
-9
-19
9
5
-46
-14
-12
35
-15
-29
-40
32
-7
-22
-35
-27
21
-45
-13
-3
-6
-3
-50
-18
-44
25
8
-37
8
-3
31
-49
-37
23
-47
22
33
-25
35
-26
-25
-26
-37
-38
37
-30
-28
-28
11
1
-30
16
11
-4
12
7
-8
-10
13
-38
-14
5
-45
40
-49
4
24
16
18
-50
16
-4
-16
-21
-10
-16
-4
-49
-46
-15
18
5
-40
38
-11
9
-41
-23
-14
-4
2
-28
18
-26
-29
-5
-4
15
41
28
-37
25
-35
28
-33
25
-5
34
-3
37
-13
33
-38
34
-32
28
0
5
-35
-18
36
-27
8
-24
40
-28
31
-2
29
-26
13
0
-38
13
-37
-42
-9
-12
-10
-14
11
11
-22
-33
22
2
-40
17
-43
24
-33
-19
35
-45
-36
-30
-8
2
-36
42
34
31
14
-26
14
-20
-12
25
-28
3
4
-23
-23
41
-11
28
-26
-16
19
-23
8
-19
-24
-18
-36
6
4
22
31
30
-24
-14
-11
24
-33
22
-1
40
14
-28
24
4
32
33
8
-25
0
14
25
28
-10
-18
15
3
-21
13
27
-36
-42
-34
-3
-38
-38
38
-17
23
10
0
35
12
-5
5
12
0
-28
-17
-20
5
-18
-20
15
5
19
-31
-40
-13
-15
15
39
28
-26
-39
-17
3
-20
36
26
33
-19
28
-43
-36
-2
-7
-40
3
25
-12
-26
-15
-35
14
-11
-15
38
21
26
9
44
-32
-21
-9
33
17
8
-41
22
10
5
5
-33
22
35
34
-22
14
-26
-12
21
-22
-50
38
22
6
21
23
-3
-19
-29
-21
-30
30
-43
7
5
3
37
19
18
23
-28
-30
19
-16
-46
-44
23
-22
-47
24
26
21
17
-8
-14
-56
25
-13
26
36
-31
-34
3
12
17
-10
32
2
11
-18
-10
-20
26
-7
26
-43
20
8
-21
-42
2
17
-33
9
-25
-31
38
-22
-19
12
2
9
36
32
-46
12
30
18
21
-28
35
26
-5
-22
-33
1
31
-33
6
-7
9
8
-25
12
10
29
39
27
-34
28
12
23
5
-22
-1
-6
24
24
-15
-20
0
26
-11
16
-37
-12
-13
8
22
-34
-9
-35
-13
42
-27
-10
-11
-36
-10
-6
-15
30
21
14
18
41
31
41
6
-3
41
13
32
6
-41
-40
32
28
-8
29
-43
-4
-5
24
-30
-14
37
-40
34
-18
30
26
31
-42
-29
23
21
-21
-29
-39
18
7
-27
41
-35
12
-10
26
-26
-38
28
43
-3
25
38
-18
-27
-27
-28
-34
-36
-13
-20
-28
18
15
-13
-27
37
1
-34
23
-2
-49
30
40
6
-3
5
26
32
12
-28
21
-7
-36
8
-12
39
-40
-19
-39
6
-2
10
31
16
-3
-19
-38
29
22
-4
-16
2
-21
3
-3
8
26
23
-8
25
1
-41
2
43
5
-2
17
-23
18
17
15
23
-30
-1
28
-10
-42
27
3
-21
-19
0
17
37
28
-9
-24
27
-27
1
-23
-16
-47
-8
2
47
-37
20
-42
16
3
-26
-3
-13
-63
-42
3
13
29
39
-42
17
42
4
-38
-25
19
-41
7
-2
7
-24
-25
-27
10
-33
-14
25
-22
-3
-18
-8
31
1
45
1
-27
-1
36
-16
-33
0
30
19
39
32
19
47
-1
-6
10
-12
43
21
42
-25
-33
-17
43
-9
19
9
-2
-30
-42
16
32
21
30
-38
23
-13
37
31
-15
20
2
-30
2
41
-16
33
-13
19
29
-1
25
-17
29
-20
4
-16
29
42
0
35
4
-11
-5
29
35
38
37
-31
-7
19
-13
17
-32
-38
22
0
-44
-16
48
-36
-41
-15
17
38
-6
-10
41
28
13
-24
36
-8
33
-12
-40
-30
-38
4
18
25
0
4
17
-23
21
-24
5
-6
-5
-2
-15
-37
-7
12
-38
-1
22
27
-18
6
-26
-27
-30
29
25
35
-23
-24
-9
-18
-36
7
-50
43
-15
-41
-28
-13
-7
-16
32
31
-4
-12
8
-19
-28
-36
23
-6
-18
-30
-13
34
-11
-6
25
-43
20
-3
26
30
-11
-1
38
-27
-36
33
-19
-32
-10
41
14
-16
-29
3
34
-17
-31
-44
-39
13
-38
-5
43
-44
31
5
-10
-15
-26
35
17
32
34
-15
34
-35
9
-38
25
-8
28
-39
-11
19
21
5
-23
-32
28
-13
-8
-4
29
36
37
-3
-7
-28
32
41
1
6
-38
3
29
12
-12
-33
12
11
38
-9
-27
25
31
-5
16
1
18
33
16
18
13
6
10
19
-26
-13
-9
3
-33
-38
41
-4
15
0
30
17
-17
23
-38
6
-15
-6
33
16
28
-44
-27
5
25
11
-27
-31
-20
22
-42
-43
5
5
-33
-31
-36
-32
20
41
39
-22
-43
44
5
28
-6
20
-2
-32
-41
41
1
-43
0
-26
25
-4
38
-11
-5
-45
9
-38
-23
-16
-41
-30
-25
42
-1
28
-35
-7
17
34
38
-33
-28
-14
-9
15
-28
-3
24
43
-10
8
29
3
21
6
-20
-9
-8
-23
23
29
38
-19
-7
25
-8
28
35
-8
18
-17
-34
6
39
4
-11
33
-30
-20
-39
-15
13
18
14
-29
8
-36
26
-37
-38
-9
-31
-27
-38
-36
6
-10
42
-36
-30
-38
0
-43
-32
-18
-2
-38
-6
26
-28
5
24
-25
17
-26
27
31
-29
4
20
17
0
-18
-28
26
-30
22
3
6
6
-19
-37
12
-12
49
39
-34
-8
-25
9
44
37
25
36
8
22
34
-20
1
10
33
42
22
7
-24
21
15
40
12
12
15
-23
36
6
-40
-38
25
-41
25
26
11
3
-37
-3
13
-52
-2
18
8
33
33
-3
18
3
-28
-24
-38
28
15
24
3
-27
-30
7
7
-21
13
35
15
42
-26
-38
-13
5
41
-4
-4
37
-1
35
23
-23
-29
-31
29
-26
32
40
-7
-16
34
15
0
9
32
15
-36
35
-29
-20
27
-26
36
-41
-15
-1
-56
-19
-38
-24
31
7
8
38
-28
-28
6
30
10
38
31
-31
-14
-15
12
21
-31
-14
10
3
32
-42
-3
39
43
-39
7
23
23
40
37
-38
5
42
-8
-21
13
-32
-3
9
16
-30
12
-24
42
-37
-28
36
28
15
-27
-2
4
-27
-10
0
-42
37
25
-41
20
-34
35
1
-20
46
-6
2
11
-7
-16
-14
4
0
-28
-7
-48
-15
-21
-6
33
-33
-27
-19
-16
21
19
-30
-11
34
-10
11
-13
-46
-27
-14
-11
16
7
-23
-13
-8
-27
-5
3
14
15
17
-24
0
12
-18
6
-10
-1
3
40
5
38
-32
-40
-19
32
-23
5
17
-49
-1
15
13
29
-34
42
-15
38
6
38
-9
-18
-21
33
-31
-27
-32
-45
27
6
28
-25
-32
8
40
2
41
13
-27
2
18
-14
-22
-35
22
-9
-2
15
2
-7
7
-21
18
8
13
32
-38
16
25
27
18
16
-34
34
-40
-10
0
6
5
7
8
-6
7
-21
25
-35
-17
29
11
18
37
31
6
-35
9
-39
18
-37
34
32
39
-40
-21
23
36
17
-21
-35
-22
-33
35
34
-21
-4
38
34
7
-45
35
7
-26
-8
41
11
-17
17
3
-23
-18
-35
-12
37
-14
15
-36
18
-38
23
-18
-12
-29
-19
33
15
-3
2
-18
27
32
-27
30
24
40
39
3
9
19
-11
-27
8
-34
-12
-38
-18
-16
-21
22
42
28
13
-3
40
-45
9
3
-30
35
-1
39
23
-10
7
42
39
31
9
32
33
-17
-32
-5
-14
-40
43
-44
-5
-24
-42
6
8
-19
4
13
-42
5
42
-28
-35
-12
-16
24
4
35
18
-14
33
-24
-13
-4
35
-30
14
-31
1
-20
-19
-15
38
-5
-35
0
-11
-39
-38
-41
-28
30
20
20
-41
-1
-6
39
33
40
-27
-32
-21
-34
-10
16
32
-9
0
-8
-34
-8
35
-33
-37
38
38
29
-5
-33
1
24
21
26
-26
9
-32
14
-7
-6
2
37
34
-36
-38
26
0
-3
-6
20
-14
-26
-11
-29
-34
-42
31
20
32
12
-12
-40
6
-23
-7
22
-4
26
-15
-29
-20
-20
-19
-32
42
-24
-23
-22
8
-3
9
31
-29
-17
19
20
35
-44
9
-21
-28
41
-22
41
24
-37
-3
-8
4
-33
-6
38
15
-25
-6
21
24
43
13
4
-18
42
-12
36
6
37
33
11
-11
27
24
-31
3
21
8
15
16
-37
13
32
-28
7
28
-10
-3
32
-23
-5
-19
-27
-24
34
0
-35
-15
34
30
8
-36
3
38
-32
22
8
-3
9
-36
-15
29
18
-2
-13
-16
46
25
29
-20
-9
36
7
-31
23
33
25
37
-27
-22
12
-4
-45
44
-35
9
19
-8
-34
4
43
-10
-33
16
16
-14
23
-38
-29
-39
12
-5
17
-40
-5
22
37
-32
41
-6
33
-35
7
-32
-39
7
-3
18
28
36
-4
-23
-4
-33
-5
39
20
3
-46
-1
7
-50
1
4
36
32
14
-39
8
-12
-7
-40
-40
-7
-21
10
25
-22
-12
-35
8
-7
38
10
18
-17
-12
-28
30
-14
26
20
24
-22
-46
32
28
21
12
-8
-19
40
-2
35
-24
32
13
-2
35
-16
25
18
41
-12
-21
27
-17
26
-40
51
7
13
-2
42
38
25
-9
-9
-17
-30
-41
3
-13
28
27
-13
-45
38
39
-12
11
-14
13
-25
10
19
-27
-28
-1
16
14
54
1
34
38
-30
31
25
39
20
8
35
-16
-10
-26
-17
-22
-28
-48
13
-2
-24
-11
-12
-16
9
-37
6
44
65
-29
27
-29
24
-17
21
6
-17
-27
-30
-7
-18
-33
2
-55
2
34
-34
-40
-31
-29
12
-5
47
-18
-15
-32
-13
-14
-36
-3
-27
-8
15
13
5
-32
21
30
24
17
-40
-11
9
10
42
17
-4
19
-34
6
-36
-29
-32
4
31
15
-10
29
16
-40
1
27
-4
-42
-36
23
-6
43
25
5
-40
-5
-38
21
27
5
-24
41
14
22
16
-25
-31
-23
-41
22
-17
2
-25
26
33
-40
-42
15
-9
44
-34
-16
-40
-2
28
-11
-14
5
-14
1
29
20
16
37
-25
-33
-6
39
-16
-1
18
1
25
-33
30
-9
-45
-18
-13
-13
-7
5
28
-34
-16
18
12
-41
-39
-42
23
-19
-17
-35
-24
-4
-21
5
44
30
-18
8
8
-8
36
30
23
16
-38
4
15
-33
38
-25
31
-21
-26
-45
-16
-18
11
-17
-21
51
-12
-23
-3
-18
18
-21
-6
38
10
32
-38
64
-34
36
-17
38
30
-27
-35
-14
-26
-30
-34
8
-10
-8
-23
28
7
-3
18
10
-30
-15
-1
-4
-24
17
-5
-27
18
-36
30
-9
-19
40
13
8
14
-42
-10
-1
-42
35
46
-38
-6
-20
-21
36
-26
22
-24
-30
-21
-7
6
30
-37
-22
-45
12
34
-37
11
45
-5
3
-13
30
60
-8
-50
-4
-11
-36
23
3
-37
-31
26
-28
-6
7
-37
22
-11
-24
6
-38
-43
19
7
15
10
19
28
-4
-46
64
-18
35
-27
-33
19
26
25
-24
27
33
-17
-31
-36
-2
8
-36
-13
9
-40
-36
-32
-42
19
9
7
-33
-29
29
43
-14
12
3
-5
14
-35
27
11
22
41
-33
23
35
6
4
-7
-14
-24
6
-28
-9
-2
-32
35
-37
31
36
20
-31
-3
-19
32
-10
20
10
19
-23
20
19
-36
10
-21
-25
15
-3
-44
34
-13
-10
24
20
-19
1
-31
-34
30
-15
34
-42
-22
-41
-46
-24
-24
-25
-42
-8
-18
7
52
46
16
-9
-5
-12
-8
-22
-28
-19
-5
51
-43
-46
-7
-39
36
10
-16
34
-26
11
-18
-26
-23
19
17
-36
10
-24
-27
36
20
9
3
-47
23
-36
-2
-11
5
-15
-8
0
0
-7
23
-4
6
-27
-35
0
-53
-37
-16
-47
-13
-27
7
25
0
10
4
-40
26
-10
-17
-28
7
25
-28
-43
29
-9
-11
34
-51
-11
4
6
23
53
-1
-27
-6
-32
-40
11
-18
3
24
-15
-5
-27
-32
60
-11
6
5
-34
-31
27
1
14
5
46
-9
47
40
-7
-19
4
-48
3
-46
4
17
-41
12
29
34
-33
4
3
38
-8
49
58
-31
-54
-19
-44
9
-4
-51
-13
0
-47
-45
6
13
0
-28
-13
-16
15
23
-35
0
21
36
-32
-25
-21
39
12
-23
-28
-27
-4
-13
35
20
24
-11
42
-11
2
34
21
19
27
25
27
-1
-1
-13
-37
11
-19
-31
43
-35
32
-2
4
34
40
2
36
-45
8
27
15
13
-44
9
-22
23
9
-23
9
-44
-30
17
-35
32
-6
-3
-40
-29
32
-7
-19
-17
25
-15
13
-6
1
-46
23
-1
-4
24
-15
15
26
-16
41
-34
-44
40
-17
-35
12
-29
10
46
12
-28
19
-11
21
-33
38
-14
2
10
20
-5
20
18
-40
-33
-20
24
-17
6
5
-37
-32
37
-26
41
-46
-40
23
-23
-29
28
30
-33
-35
3
-1
-6
11
19
36
28
0
9
-9
35
-41
28
-4
38
34
-13
-45
-14
6
3
-14
39
-6
13
-4
2
9
17
-24
-6
-44
-14
26
-28
44
36
-17
-36
21
31
28
0
-14
34
-35
35
-24
-40
-8
-34
-44
-46
17
-21
-29
-39
-35
-2
8
25
-30
-6
34
-34
12
41
27
-11
-19
-2
29
-11
-2
-37
8
17
1
28
-16
-17
7
-28
-2
21
-11
-34
-14
-18
-13
7
36
-15
17
-26
10
1
-36
-4
-30
10
6
-35
28
-37
-38
-23
-34
30
-45
-18
-12
9
11
-43
-41
2
3
-42
-48
24
-40
-7
-17
12
-16
-37
33
8
6
0
5
-20
-31
17
-29
-15
27
-23
18
-2
-33
17
23
0
-38
-18
22
24
-27
9
-11
11
-36
-4
5
3
23
37
-45
-40
-29
6
21
-24
-38
-28
16
6
19
33
25
19
-36
22
17
-14
39
28
33
12
-12
7
7
-23
-9
-47
10
14
14
34
-33
43
36
8
37
-30
13
15
43
29
-28
14
-24
15
-3
-40
-30
10
-29
15
-4
24
19
-15
24
-34
10
-30
20
33
-34
9
-11
-32
-39
12
33
10
-40
40
-7
-25
0
-40
-32
-24
5
10
14
27
22
-41
23
42
41
28
-39
-41
0
-35
22
-20
24
36
11
30
-3
-31
-5
-17
-1
40
25
2
-21
9
5
-15
16
-24
-19
-35
-36
4
0
-29
6
22
0
41
10
18
2
22
3
-22
18
8
-15
28
5
29
17
-41
10
40
-13
-37
37
16
28
2
-8
-15
5
-18
6
-32
-5
36
-6
-26
24
37
35
-1
-6
-32
-9
5
-22
38
-28
39
0
35
1
-6
37
-38
23
30
11
36
38
-26
-27
38
-32
8
-20
-40
20
24
-52
-12
-10
-41
11
17
-40
23
2
8
-16
27
-11
-4
-32
49
-35
27
-24
-42
24
18
-32
-7
-5
-21
-6
-46
-33
-17
7
-37
-4
-8
-38
21
-20
18
-37
33
-29
18
-23
36
20
-1
22
23
-39
-31
2
12
-41
8
16
-10
41
-5
-41
-31
-7
-39
-13
-23
17
-10
8
26
24
-20
-28
-26
10
27
3
-21
15
2
24
0
-36
-40
1
0
20
25
-40
-16
33
18
42
-4
23
2
37
-6
7
-5
17
-29
-25
10
-33
30
-40
-25
-16
-28
17
16
-33
27
16
21
31
-25
35
-17
-24
-10
8
11
19
18
31
41
22
11
-12
12
29
23
32
33
-24
-19
10
-38
-37
-29
40
31
-21
-27
-17
-16
8
-18
-44
-27
29
-4
26
22
-5
-15
-32
22
-17
37
-14
-27
-30
-4
26
-43
-31
-38
-20
-19
1
38
-28
-37
28
28
-13
-25
12
15
-38
33
13
-14
36
-42
21
-9
43
-21
17
23
-23
-19
-5
-20
-34
41
0
36
-2
-10
18
27
-8
-44
23
41
6
37
-32
13
35
4
39
-39
30
-10
-25
-13
19
40
34
-2
-27
0
6
-9
14
-30
23
2
41
-43
-18
11
32
-36
-12
-23
22
17
-32
33
26
1
5
39
-8
-20
-26
21
-37
35
24
5
23
-14
10
-28
12
-17
28
-23
-23
32
22
43
-20
-29
36
15
-32
13
-24
-34
2
-16
12
-44
-23
11
3
12
-11
-11
17
13
-7
31
-4
-31
-27
-11
-12
29
-34
47
-35
16
15
-8
-44
-44
9
-19
-15
17
22
40
-43
14
-31
-4
-45
-34
-6
10
-8
-12
38
-41
-34
11
32
31
-9
-9
13
-41
26
2
5
-46
-8
-37
-15
9
-11
25
-27
2
10
-11
20
-24
13
0
6
41
-14
19
20
-4
-25
-28
15
34
35
-37
29
-11
-49
-27
-31
2
-30
-13
14
-24
-22
-4
31
-19
28
-4
-36
-13
2
37
13
-37
10
-15
-27
-1
4
12
18
11
8
28
-30
26
10
38
30
-23
-17
-26
24
-9
-9
30
-26
-34
-16
-11
-3
-43
14
-15
-29
31
-16
21
34
-13
-18
-26
-13
-29
34
12
14
37
-31
-20
34
-40
-24
13
17
-12
11
-13
-11
-5
35
28
-7
-18
-8
31
-45
-25
-13
-25
13
34
-5
-20
26
-47
-37
42
30
35
-9
-39
24
15
25
19
35
42
26
-40
37
12
13
-3
13
-25
11
11
-38
-32
11
-15
-37
3
-6
-28
-17
1
41
30
-36
44
-27
30
27
3
-38
-25
16
-7
-10
-43
-24
-15
28
12
-22
39
-2
1
-14
-45
-17
-13
-23
-15
25
-39
-1
4
13
21
-21
-20
-37
-18
-38
34
-42
-26
23
-32
-20
-43
37
-4
5
10
-45
13
6
-11
-32
-27
3
32
-13
18
-18
-22
7
29
-38
24
38
3
37
-10
18
-27
3
39
34
32
17
19
29
32
3
-39
-16
23
37
-34
-24
-7
-10
-30
34
-19
-41
-10
-33
-19
45
-15
-5
-4
46
0
-29
14
12
-8
-5
-15
24
-5
-1
57
3
-15
32
-3
17
43
-11
-13
-11
-16
9
-7
42
-41
-27
15
-30
18
13
-8
-26
-2
-18
6
-19
6
43
29
-11
7
26
-49
-23
15
-40
3
5
-25
3
19
5
8
18
31
-36
-12
-25
16
25
23
-29
52
-32
36
4
-33
-34
42
-25
14
-27
-47
-12
-23
17
7
-30
-20
4
-39
-45
-45
25
-1
-18
28
-17
17
-31
11
-25
35
6
42
39
26
46
-8
-32
11
-31
-46
7
40
-20
-4
-17
-6
3
-32
-33
41
0
9
26
-9
-1
-5
25
-18
-21
-1
-10
11
-12
-30
32
2
-1
18
-43
-46
43
8
41
-7
19
3
-26
-40
29
-43
-3
-32
-31
34
-18
7
-17
-38
-5
-7
20
33
-16
39
-21
1
35
3
30
20
35
-21
-4
21
-7
-27
15
-24
1
24
11
41
-32
39
16
1
5
-11
36
-28
1
33
32
-13
3
0
17
-40
-17
27
-29
20
-42
-43
26
18
8
2
3
34
-40
2
4
4
-24
39
-22
16
-15
38
-15
-5
-20
11
5
-2
6
-14
-5
23
-45
40
-22
-34
-46
18
8
38
-9
42
22
45
28
-5
-44
-8
12
-35
-44
10
-13
33
-13
-20
32
17
-38
5
35
17
-18
-4
-44
4
-3
15
0
-21
38
-47
-27
-6
-25
-8
14
15
-16
-24
38
9
-10
38
53
37
-39
30
-28
-28
-36
-9
12
-32
28
36
25
39
47
38
15
23
-38
43
-17
-40
-31
7
9
-44
-5
-37
6
-11
-32
-19
26
18
-3
-6
-4
-30
-20
23
-14
-10
-30
-17
-21
-21
-19
-8
18
24
-20
41
-42
29
-35
29
-3
33
-17
-3
-34
-13
-9
3
24
-38
24
-29
-35
40
-30
26
-41
4
38
12
37
30
-37
0
-16
29
-12
-38
-36
15
41
-36
28
-31
-35
36
-17
39
7
-14
27
-11
6
9
-23
15
-10
45
39
37
-42
36
4
31
36
8
18
2
-9
-41
-32
32
-6
-7
27
1
20
25
-19
21
19
19
-22
27
21
33
-34
6
2
0
-35
13
15
-25
5
-19
6
-34
-27
-17
-24
12
0
-3
16
-29
-16
17
-16
38
-17
-19
-26
10
-31
-23
-35
34
10
33
-29
19
28
-18
6
-34
-39
0
-19
30
11
-28
23
29
20
-7
-22
-32
16
-20
-37
15
-41
-42
27
19
22
37
-3
-34
-17
-21
32
-37
-35
-37
20
17
-19
-18
29
-22
-19
0
-33
26
-28
3
-40
46
-39
27
36
38
-19
-10
29
-41
-4
-32
-13
-42
12
27
-11
-32
-42
13
-15
31
-6
18
-52
-22
2
-37
42
28
-2
-2
9
-27
-40
25
33
-32
32
-5
-21
25
-33
-33
12
21
18
-53
-16
6
37
-3
20
33
-19
16
-2
14
-18
-7
-10
36
-9
30
39
-7
37
19
-16
-8
40
-25
10
-25
-1
-32
-22
-33
-27
-9
28
-44
-4
-10
18
-16
-16
-1
-21
39
-43
-40
-13
-23
-12
3
-15
-2
17
-27
0
10
-10
-7
-43
-42
28
-10
14
7
14
-26
6
19
-18
-11
-14
-39
30
-50
-6
-27
-6
7
-17
24
4
19
-15
27
18
18
-39
-44
-41
-26
-13
31
1
-15
53
15
10
-30
-28
-17
-37
-25
3
15
55
-28
-40
-24
4
-3
-38
-8
-23
-20
-1
24
14
5
14
3
24
-15
-12
25
-52
-62
45
-7
-25
-10
36
39
39
-51
-40
24
-12
-4
7
25
25
46
28
46
10
-38
-22
11
-4
13
49
11
14
15
-9
-23
-38
-37
54
23
-9
-23
-12
-31
-26
-50
-14
16
-23
-12
18
12
14
23
-9
26
21
-6
35
-26
16
28
9
-1
-10
8
-8
-44
43
21
2
-15
-5
14
-46
31
35
4
-12
-38
-36
30
17
4
-39
44
39
-4
21
-17
-2
2
43
-25
-42
29
30
-11
3
40
-8
-30
-32
8
-15
-45
1
17
9
18
-6
-41
-4
2
-46
32
11
1
-14
-21
44
-2
30
-41
40
-17
2
13
3
26
16
9
-53
-47
-46
-17
-12
31
5
-37
24
29
-14
11
8
-19
-40
15
-43
28
6
-12
24
-40
-20
22
-12
-5
21
32
21
37
42
-38
-27
12
-4
33
-17
11
-47
3
13
-16
0
8
-8
2
17
-34
16
-1
17
-21
-48
-1
-40
1
-41
-13
-33
15
29
-1
-45
-31
13
-21
19
21
10
-24
-34
-9
-17
5
-23
17
29
-6
-35
0
-29
-14
42
-35
-10
-29
4
-42
-11
38
-20
-20
1
10
-35
-48
-43
-32
-35
12
15
-27
-30
-46
-35
2
16
-48
-3
-49
0
-44
-18
12
8
28
-33
18
8
-2
17
25
-43
22
3
-10
26
-15
20
11
-18
-26
-2
19
-30
33
-25
7
-49
11
-44
-4
1
-20
18
36
20
-1
5
-31
4
10
5
11
-29
24
0
26
38
-32
9
-13
-11
-18
-17
-25
17
14
-37
35
-42
23
-20
-23
-32
26
-34
24
27
33
20
-27
41
-4
-41
-32
0
-7
-33
24
5
7
-11
-14
-2
-2
-29
23
44
7
-21
21
-16
-7
-1
-50
1
39
-28
-7
-24
17
-30
-38
-28
-34
-24
26
19
23
-15
-45
30
-44
7
-17
-44
-1
-3
-20
-44
-5
-17
-6
-2
-29
-5
33
-42
-6
3
-2
58
-7
26
-20
-23
-22
-19
-9
-13
-51
42
20
-45
30
-6
1
28
8
-4
29
-19
31
24
-9
18
32
-13
2
4
-29
-26
-12
8
-13
38
-33
-28
38
16
18
-3
-4
-22
-48
-13
-31
-7
22
-31
-20
21
-4
47
35
24
29
1
-3
27
16
-24
9
27
6
25
39
0
-33
-29
1
-28
39
29
-6
-42
38
13
12
-33
-33
9
-22
-15
0
-3
41
-45
39
-34
-48
2
13
10
-23
-8
-12
-4
-2
-44
4
-2
-13
21
1
25
-33
-18
-25
-20
-6
10
-33
26
2
-12
-14
40
-41
40
-32
-12
-39
-19
-2
-4
31
-13
-31
-37
5
-15
-38
-13
-27
-27
-23
1
-33
3
-3
9
14
-39
36
-28
24
-22
-47
-11
19
-34
10
-2
-26
-40
-14
-12
-14
-32
-37
29
17
9
1
35
-20
-8
36
-39
-39
27
-26
0
-23
18
12
-32
-20
25
-7
8
-3
20
22
-12
31
-12
22
34
-4
23
17
-1
36
26
-30
48
35
-7
34
37
-30
-23
31
-3
38
21
-21
37
-41
18
23
46
12
21
33
-12
23
24
-43
2
26
-12
-22
-36
2
28
21
-26
-21
18
-35
2
-30
-37
-5
50
-30
-37
-24
-23
23
-38
7
38
5
36
-3
39
22
-34
-19
-13
30
-23
-25
50
16
30
14
-13
-14
33
-37
39
-22
0
-31
27
23
28
-33
19
-42
-29
4
19
-23
21
-38
-14
20
-21
-3
4
-41
8
31
-33
23
-4
37
21
-11
-36
-19
-22
-3
22
31
30
36
-2
3
12
-20
-11
-23
-41
-16
1
-31
34
29
40
-7
-9
-34
-4
2
-9
32
-21
-45
-10
40
-32
29
-11
19
17
10
-26
-18
-24
21
-15
31
-32
-14
-7
-18
6
-42
20
1
-4
-22
29
7
-22
19
-11
-33
29
-24
38
-41
10
-27
4
-28
7
-31
41
-21
-34
-16
8
43
32
-19
25
22
21
-26
20
3
26
7
-12
6
23
25
3
4
-7
38
15
-11
-15
-43
-24
41
-19
1
14
18
45
-14
-19
21
-36
30
-3
-10
-4
-20
35
-16
-34
-17
-7
-5
16
-13
-45
-27
-21
12
25
-22
-26
-4
33
-26
-33
-35
0
7
4
-13
26
-22
36
18
-22
35
4
27
19
-8
32
15
20
25
-19
12
-38
-42
23
39
-1
-29
23
-22
28
-35
36
-21
-21
-18
17
-39
-22
0
11
38
-32
9
-18
31
-7
-20
35
-22
43
9
0
38
-1
10
18
9
-9
-8
-24
22
-8
-23
41
42
-31
8
-39
-28
-25
-8
-3
-19
-38
-8
-14
29
-40
14
7
5
17
32
29
-16
-40
11
34
14
-7
33
-36
39
-27
-17
-16
-40
19
41
-12
30
15
41
11
26
-17
-35
16
-30
6
-40
32
-18
-27
32
-52
34
11
-33
-3
51
-20
-2
43
-27
-26
16
20
-25
-3
-20
33
-23
-12
14
27
4
33
16
-1
5
-32
-34
-32
-43
32
-3
27
-1
25
8
31
-53
-13
-43
-39
7
-26
40
32
7
-40
35
35
-23
-17
54
29
11
-6
34
-28
-34
13
34
17
-28
8
15
26
18
-26
10
-32
-40
32
17
-16
40
25
-31
16
8
-36
-22
-29
47
-37
4
26
-40
-23
-8
-36
-1
33
-16
20
-1
-13
-29
40
5
15
-3
12
-9
8
0
-16
-37
-28
-14
37
-20
15
38
-30
1
17
-8
14
-15
-43
21
34
-34
32
-20
9
-17
6
23
-36
6
33
-29
7
-44
-30
-36
0
-20
13
36
5
-20
-30
24
-3
-1
-36
-42
30
-4
6
39
-29
-42
-14
-29
-40
-21
-26
7
-12
31
38
-4
13
-48
14
-29
-43
-32
10
-36
19
36
-10
-30
7
24
-14
-5
37
39
-35
-34
40
31
-3
6
-3
-26
-32
20
-5
21
-10
-27
5
-31
-35
-8
-22
9
-7
13
-39
0
-20
39
-25
35
-24
-31
-22
-25
12
16
44
-26
-15
-29
-16
17
25
-16
40
26
23
-12
-1
46
-13
-27
25
7
38
-20
11
29
2
39
39
37
-10
12
38
-20
-12
-27
-16
-28
22
-24
-5
12
-24
2
-31
-25
-24
-40
20
25
-53
41
-42
14
-20
29
10
-13
-7
20
30
17
7
-40
-1
-15
2
-31
-6
35
-15
19
41
14
-21
23
33
-45
18
30
19
30
-1
23
-37
29
40
7
9
30
59
33
27
0
-28
9
-26
-21
37
9
-25
35
-25
-33
44
24
41
1
39
25
22
18
-10
26
30
38
22
37
5
-38
-41
9
23
30
6
29
27
-27
-37
38
-1
-11
14
26
-24
21
-41
33
41
-10
32
35
2
-20
12
29
34
10
5
35
-44
34
-38
-63
-46
12
-23
5
-15
-21
-17
13
9
33
31
37
27
7
38
-19
-39
-25
-37
10
-8
26
12
13
4
2
29
-2
-37
-23
2
-24
-14
-27
23
-36
-26
-25
14
24
13
5
-1
-19
-42
32
-4
-32
-24
-34
3
16
39
31
16
-39
-8
-35
9
-25
-40
39
32
-15
17
-32
10
-38
41
4
-3
-28
44
11
-13
-13
2
-45
-31
-43
15
-25
8
-18
-11
-30
-16
-17
-16
7
23
24
7
-30
-38
18
-22
33
32
-32
4
10
46
16
-7
40
-40
7
19
36
23
-28
27
22
-10
-6
-45
-5
-14
24
-4
40
-40
12
12
14
-12
-39
-37
13
-8
-9
41
-26
8
-11
-22
26
28
-14
19
-12
-42
-30
-1
-28
36
-38
-1
26
28
-42
34
27
-34
-28
34
-14
6
-30
-29
40
-37
20
11
34
21
9
-31
-14
26
-21
1
-12
-37
36
-10
-11
23
-24
3
-35
-16
41
-4
-34
34
35
-2
13
13
-23
-38
-38
-17
-8
-15
23
-14
13
-9
28
31
-50
14
-44
-37
-34
-37
42
11
-8
-39
-33
-6
23
-26
-24
-12
-36
13
38
-4
-31
2
0
-15
-40
8
23
-12
-35
12
20
37
-5
-30
-12
25
-9
-35
-5
-24
34
-24
40
16
5
34
-23
-25
-12
2
25
-2
32
-4
17
32
-16
-4
-12
-1
-10
-3
20
46
-25
-5
-12
2
-32
9
2
9
35
26
13
12
23
11
-8
-13
28
-44
-20
20
23
-12
15
-18
22
-36
17
2
-25
-5
-19
-22
-11
-15
-53
28
12
-14
26
23
14
-11
17
-26
34
29
36
-12
-6
-3
-38
17
3
19
39
-20
-19
-28
-31
-10
-30
-43
-29
6
-3
-11
-4
-20
-3
-34
-39
17
-22
35
-16
33
-7
12
-13
17
-30
17
-11
34
-8
25
27
-34
-24
32
-32
13
25
16
-21
-32
-34
37
6
-23
-20
13
26
3
35
-8
21
19
-30
-28
41
4
-19
-25
-29
27
-33
-4
34
-38
12
-27
-18
23
-13
-19
37
11
-20
-20
41
19
11
25
-30
-12
27
13
29
-7
4
2
19
16
-22
43
-43
6
8
-7
18
-19
5
30
-6
-1
33
17
9
4
-21
-12
34
-20
23
-36
12
28
36
40
-31
-40
-5
2
-16
-8
-31
4
-39
-25
-38
42
37
-24
-10
-6
45
-42
-1
33
-19
36
-17
-5
26
16
38
22
-43
-3
-45
7
40
-14
-17
28
37
37
41
16
35
-7
-34
2
17
-11
44
-1
-25
32
-20
-43
42
41
-12
21
-4
-29
-36
-22
16
10
32
-17
35
35
26
35
38
11
31
9
35
-47
33
-7
-33
-19
0
-32
34
-40
-5
2
-5
4
-29
-38
-22
6
-1
-29
20
-27
32
-4
22
38
-27
21
-36
11
20
-40
-33
-40
-8
34
1
-26
37
38
9
-39
38
18
-38
8
-11
1
8
20
29
-15
17
26
40
-3
-16
11
2
-10
-16
35
-9
-25
3
39
-17
-22
23
24
15
40
-17
-14
27
4
20
-26
-1
34
-43
-2
32
-2
32
-39
-20
-18
28
7
3
20
-11
40
39
43
-5
12
7
6
-38
-42
15
13
-7
19
7
23
11
-41
-12
-20
-16
-19
13
7
30
7
-3
10
44
-24
-9
35
23
41
-23
26
-23
-18
-40
15
-8
-18
-26
41
22
-17
-27
-39
-30
12
11
40
44
33
15
12
-20
6
6
-33
-12
-16
4
34
-42
-5
-42
-6
-37
18
5
-38
17
-21
32
31
-22
29
6
-33
38
-16
5
2
19
8
12
25
-4
-17
4
27
-40
14
-34
-13
-44
22
1
-19
-23
32
-23
-41
20
22
44
24
-3
13
-22
16
9
-20
-17
-9
15
-9
-16
-6
14
-18
27
-34
-4
31
31
33
21
24
1
34
19
-40
17
23
24
20
11
-1
54
22
-18
-22
4
-43
-45
14
21
17
8
-44
24
22
-5
-33
-22
-30
11
4
-24
-11
-41
-21
-6
37
16
34
-9
-14
-13
-4
-27
-30
-21
-9
-48
-15
-39
22
-11
-10
1
14
5
-40
-3
27
-11
-1
-33
2
13
33
22
30
21
-6
-50
28
33
-4
-34
20
-22
39
-19
-27
-3
18
46
22
6
-2
0
2
-35
-19
-32
21
8
-32
20
-15
-25
6
5
6
10
-51
25
-38
30
-29
14
11
3
-26
36
-28
45
-30
19
-47
10
-15
8
-2
-29
-33
-13
8
37
21
43
7
38
19
25
26
-16
9
-23
-1
-22
27
3
-38
-25
-11
-45
50
35
-40
12
21
-5
26
-48
-37
14
-22
16
14
25
13
-14
-33
-1
-24
-34
28
-9
-52
-28
37
-16
35
36
29
-34
-17
38
-3
-9
-2
10
1
-52
4
-8
-28
-17
-40
11
-30
-35
28
7
-3
6
-31
-13
4
30
29
-31
8
-12
-45
-9
-21
12
-33
6
-28
-16
-15
-4
-47
-7
32
-4
-11
11
-38
41
-32
-20
-2
29
13
5
12
43
28
5
-13
10
-16
-20
-30
12
20
-31
-39
33
-30
3
-14
-4
5
-42
-4
-14
-2
28
-13
-15
-12
-12
-5
-1
-8
26
26
-29
-32
14
-8
-41
7
12
-18
-25
22
12
-18
21
29
-12
29
32
29
16
11
8
-39
-44
-38
25
4
-20
24
-24
27
-7
-21
8
36
18
1
31
3
-13
48
-27
-1
25
18
5
0
0
1
-2
-23
15
-52
-9
-19
14
-20
